<?xml version="1.0"?>
<opencv_storage>
<cascade>
  <stageType>BOOST</stageType>
  <featureType>HAAR</featureType>
  <height>46</height>
  <width>38</width>
  <stageParams>
    <boostType>GAB</boostType>
    <minHitRate>9.9500000476837158e-01</minHitRate>
    <maxFalseAlarm>5.0000000000000000e-01</maxFalseAlarm>
    <weightTrimRate>9.4999998807907104e-01</weightTrimRate>
    <maxDepth>1</maxDepth>
    <maxWeakCount>100</maxWeakCount></stageParams>
  <featureParams>
    <maxCatCount>0</maxCatCount>
    <featSize>1</featSize>
    <mode>BASIC</mode></featureParams>
  <stageNum>3</stageNum>
  <stages>
    <!-- stage 0 -->
    <_>
      <maxWeakCount>3</maxWeakCount>
      <stageThreshold>-7.2730529308319092e-01</stageThreshold>
      <weakClassifiers>
        <_>
          <internalNodes>
            0 -1 1 8.1502795219421387e-02</internalNodes>
          <leafValues>
            -8.5645931959152222e-01 7.0731705427169800e-01</leafValues></_>
        <_>
          <internalNodes>
            0 -1 3 2.5777094066143036e-02</internalNodes>
          <leafValues>
            -7.3733824491500854e-01 6.6397500038146973e-01</leafValues></_>
        <_>
          <internalNodes>
            0 -1 2 -1.4295268338173628e-03</internalNodes>
          <leafValues>
            9.0017056465148926e-01 -5.3482097387313843e-01</leafValues></_></weakClassifiers></_>
    <!-- stage 1 -->
    <_>
      <maxWeakCount>3</maxWeakCount>
      <stageThreshold>-7.1073365211486816e-01</stageThreshold>
      <weakClassifiers>
        <_>
          <internalNodes>
            0 -1 4 2.8084870427846909e-04</internalNodes>
          <leafValues>
            -8.2648402452468872e-01 1.</leafValues></_>
        <_>
          <internalNodes>
            0 -1 5 9.8158884793519974e-03</internalNodes>
          <leafValues>
            -6.7558324337005615e-01 1.</leafValues></_>
        <_>
          <internalNodes>
            0 -1 6 -7.8924422268755734e-05</internalNodes>
          <leafValues>
            7.9133361577987671e-01 -7.7999120950698853e-01</leafValues></_></weakClassifiers></_>
    <!-- stage 2 -->
    <_>
      <maxWeakCount>1</maxWeakCount>
      <stageThreshold>1.</stageThreshold>
      <weakClassifiers>
        <_>
          <internalNodes>
            0 -1 0 -2.4610754102468491e-02</internalNodes>
          <leafValues>
            -1. 1.</leafValues></_></weakClassifiers></_></stages>
  <features>
    <_>
      <rects>
        <_>
          0 9 32 18 -1.</_>
        <_>
          0 18 32 9 2.</_></rects>
      <tilted>0</tilted></_>
    <_>
      <rects>
        <_>
          0 18 36 18 -1.</_>
        <_>
          12 18 12 18 3.</_></rects>
      <tilted>0</tilted></_>
    <_>
      <rects>
        <_>
          5 2 4 8 -1.</_>
        <_>
          5 2 2 4 2.</_>
        <_>
          7 6 2 4 2.</_></rects>
      <tilted>0</tilted></_>
    <_>
      <rects>
        <_>
          5 21 17 14 -1.</_>
        <_>
          5 28 17 7 2.</_></rects>
      <tilted>0</tilted></_>
    <_>
      <rects>
        <_>
          6 4 2 12 -1.</_>
        <_>
          6 4 1 6 2.</_>
        <_>
          7 10 1 6 2.</_></rects>
      <tilted>0</tilted></_>
    <_>
      <rects>
        <_>
          18 0 20 10 -1.</_>
        <_>
          18 0 10 5 2.</_>
        <_>
          28 5 10 5 2.</_></rects>
      <tilted>0</tilted></_>
    <_>
      <rects>
        <_>
          36 5 2 14 -1.</_>
        <_>
          36 5 1 7 2.</_>
        <_>
          37 12 1 7 2.</_></rects>
      <tilted>0</tilted></_></features></cascade>
</opencv_storage>
